{"learner":{"attributes":{"best_iteration":"5","best_score":"0.5556919642857143"},"feature_names":["RSI_Delta","Volatility_Index","Session_Code","RSI_H1_Div","Trend_Vol_Ratio","RSI_M15","RSI_H1","RSI_H4","ADX","ATR","hour"],"feature_types":["float","float","int","float","float","float","float","float","float","float","int"],"gradient_booster":{"model":{"cats":{"enc":[],"feature_segments":[],"sorted_idx":[]},"gbtree_model_param":{"num_parallel_tree":"1","num_trees":"26"},"iteration_indptr":[0,1,2,3,4,5,6,7,8,9,10,11,12,13,14,15,16,17,18,19,20,21,22,23,24,25,26],"tree_info":[0,0,0,0,0,0,0,0,0,0,0,0,0,0,0,0,0,0,0,0,0,0,0,0,0,0],"trees":[{"base_weights":[-3.2535968E-3,3.3110103E-1,-3.2449505E-1,8.826397E-2,5.9359807E-1,-5.187303E-1,6.7286986E-1,4.575197E-2,-3.3417128E-2,6.5055646E-2,4.3791682E-1,-6.0028785E-1,2.6207227E-2,1.1138538E0,-1.8669233E-2,-7.978751E-3,4.5885984E-2,-2.9622067E-2,3.0600095E-2,-6.0939523E-3,-3.9932773E-2,8.738064E-3,8.2116954E-2],"categories":[],"categories_nodes":[],"categories_segments":[],"categories_sizes":[],"default_left":[0,0,0,0,0,0,0,0,0,0,0,0,0,0,0,0,0,0,0,0,0,0,0],"id":0,"left_children":[1,3,5,7,9,11,13,-1,15,-1,17,19,-1,21,-1,-1,-1,-1,-1,-1,-1,-1,-1],"loss_changes":[2.4631083E1,7.110655E0,2.3004799E1,6.021145E0,5.358925E0,8.68829E0,9.412119E0,0E0,6.490729E0,0E0,8.546352E0,8.612267E0,0E0,6.6452446E0,0E0,0E0,0E0,0E0,0E0,0E0,0E0,0E0,0E0],"parents":[2147483647,0,0,1,1,2,2,3,3,4,4,5,5,6,6,8,8,10,10,11,11,13,13],"right_children":[2,4,6,8,10,12,14,-1,16,-1,18,20,-1,22,-1,-1,-1,-1,-1,-1,-1,-1,-1],"split_conditions":[5.8989227E1,1.2E1,4E0,1E0,1.5380326E1,8.271495E-3,1.1329696E-1,4.575197E-2,5.6319805E1,6.5055646E-2,6.837569E-2,5.9929196E-2,2.6207227E-2,1.738161E1,-1.8669233E-2,-7.978751E-3,4.5885984E-2,-2.9622067E-2,3.0600095E-2,-6.0939523E-3,-3.9932773E-2,8.738064E-3,8.2116954E-2],"split_indices":[7,10,2,10,8,1,4,0,7,0,4,4,0,8,0,0,0,0,0,0,0,0,0],"split_type":[0,0,0,0,0,0,0,0,0,0,0,0,0,0,0,0,0,0,0,0,0,0,0],"sum_hessian":[2.2732112E2,1.1137209E2,1.1594903E2,5.854663E1,5.2825462E1,9.7450584E1,1.8498447E1,6.6746974E0,5.1871933E1,8.200342E0,4.4625122E1,9.077589E1,6.6746974E0,1.2967983E1,5.5304637E0,4.6532177E1,5.339758E0,6.1025805E0,3.852254E1,2.7080202E1,6.3695686E1,5.149052E0,7.818931E0],"tree_param":{"num_deleted":"0","num_feature":"11","num_nodes":"23","size_leaf_vector":"1"}},{"base_weights":[-7.8079863E-3,2.5357005E-1,-2.660252E-1,-1.6343504E-2,4.7092628E-1,-4.069123E-1,4.2917493E-1,-2.3852862E-1,4.8756104E-2,3.2378328E-1,6.773022E-2,-4.925589E-1,2.4214825E-2,5.820001E-2,-1.9509977E-1,2.4493223E-2,-1.9446833E-2,2.3922374E-2,-5.15895E-3,-1.4405683E-2,-4.008414E-2,1.6310394E-3,-1.8754488E-2],"categories":[],"categories_nodes":[],"categories_segments":[],"categories_sizes":[],"default_left":[0,0,0,0,0,0,0,0,0,0,0,0,0,0,0,0,0,0,0,0,0,0,0],"id":1,"left_children":[1,3,5,7,9,11,13,15,-1,17,-1,19,-1,-1,21,-1,-1,-1,-1,-1,-1,-1,-1],"loss_changes":[1.5373531E1,6.6496353E0,1.1396075E1,1.1570323E1,7.720069E0,7.549075E0,9.306546E0,4.884871E0,0E0,3.6881657E0,0E0,5.3226357E0,0E0,0E0,4.8595387E-1,0E0,0E0,0E0,0E0,0E0,0E0,0E0,0E0],"parents":[2147483647,0,0,1,1,2,2,3,3,4,4,5,5,6,6,7,7,9,9,11,11,14,14],"right_children":[2,4,6,8,10,12,14,16,-1,18,-1,20,-1,-1,22,-1,-1,-1,-1,-1,-1,-1,-1],"split_conditions":[5.7086258E1,1E1,4E0,8.756783E-3,1.7104355E1,8.109538E-3,2.648931E-3,1E0,4.8756104E-2,6.6678915E-3,6.773022E-2,2.0352733E0,2.4214825E-2,5.820001E-2,2.5380108E1,2.4493223E-2,-1.9446833E-2,2.3922374E-2,-5.15895E-3,-1.4405683E-2,-4.008414E-2,1.6310394E-3,-1.8754488E-2],"split_indices":[5,10,2,1,0,1,1,10,0,1,0,0,0,0,8,0,0,0,0,0,0,0,0],"split_type":[0,0,0,0,0,0,0,0,0,0,0,0,0,0,0,0,0,0,0,0,0,0,0],"sum_hessian":[2.2578253E2,1.12213455E2,1.1356908E2,5.046754E1,6.174592E1,9.477662E1,1.8792458E1,4.184875E1,8.618789E0,5.4103447E1,7.6424704E0,8.68751E1,7.9015207E0,8.23481E0,1.0557648E1,6.7761993E0,3.507255E1,3.9627914E1,1.4475532E1,5.345416E1,3.3420937E1,5.022289E0,5.535359E0],"tree_param":{"num_deleted":"0","num_feature":"11","num_nodes":"23","size_leaf_vector":"1"}},{"base_weights":[-2.5955219E-2,-1.4221749E-1,6.4206576E-1,1.4104727E-1,-4.114079E-1,2.8012753E-1,6.400999E-2,4.202429E-3,1.0163051E0,-4.9059278E-1,3.453535E-2,5.041323E-1,-1.2254865E-2,-3.1953633E-2,7.7683777E-3,2.0554435E-2,7.0287384E-2,-6.015294E-3,-3.177063E-2,-3.2333897E-3,4.318554E-2],"categories":[],"categories_nodes":[],"categories_segments":[],"categories_sizes":[],"default_left":[0,0,0,0,0,0,0,0,0,0,0,0,0,0,0,0,0,0,0,0,0],"id":2,"left_children":[1,3,5,7,9,11,-1,13,15,17,-1,19,-1,-1,-1,-1,-1,-1,-1,-1,-1],"loss_changes":[1.7595308E1,1.4758313E1,7.399765E0,1.133617E1,8.987711E0,2.7959542E0,0E0,8.158993E0,2.438468E0,4.9130936E0,0E0,3.3794904E0,0E0,0E0,0E0,0E0,0E0,0E0,0E0,0E0,0E0],"parents":[2147483647,0,0,1,1,2,2,3,3,4,4,5,5,7,7,8,8,9,9,11,11],"right_children":[2,4,6,8,10,12,-1,14,16,18,-1,20,-1,-1,-1,-1,-1,-1,-1,-1,-1],"split_conditions":[4E0,5.846495E1,3.631005E1,5.5786953E1,2.140958E1,4.0429626E0,6.400999E-2,-8.339262E0,9E0,1.788681E1,3.453535E-2,-5.541871E0,-1.2254865E-2,-3.1953633E-2,7.7683777E-3,2.0554435E-2,7.0287384E-2,-6.015294E-3,-3.177063E-2,-3.2333897E-3,4.318554E-2],"split_indices":[2,7,8,7,0,0,0,0,10,8,0,0,0,0,0,0,0,0,0,0,0],"split_type":[0,0,0,0,0,0,0,0,0,0,0,0,0,0,0,0,0,0,0,0,0],"sum_hessian":[2.2437636E2,1.917852E2,3.259116E1,9.368159E1,9.810361E1,2.1714218E1,1.0876941E1,8.188399E1,1.17976E1,9.20452E1,6.058413E0,1.5250251E1,6.463968E0,1.4966635E1,6.691736E1,5.4239893E0,6.3736105E0,2.6392778E1,6.565242E1,6.224371E0,9.02588E0],"tree_param":{"num_deleted":"0","num_feature":"11","num_nodes":"21","size_leaf_vector":"1"}},{"base_weights":[-6.2845714E-2,2.61432E-1,-2.539305E-1,1.844086E-1,5.8936488E-2,-8.868511E-1,-1.1800864E-1,4.559439E-2,1.1613115E-1,-1.627925E-2,-5.2598745E-2,-2.493453E-1,3.6692193E-1,-2.6016325E-2,1.448331E-2,-1.7229242E-2,3.641305E-2,4.82561E-2,-3.2548975E-2],"categories":[],"categories_nodes":[],"categories_segments":[],"categories_sizes":[],"default_left":[0,0,0,0,0,0,0,0,0,0,0,0,0,0,0,0,0,0,0],"id":3,"left_children":[1,3,5,7,-1,9,11,-1,13,-1,-1,15,17,-1,-1,-1,-1,-1,-1],"loss_changes":[1.4287458E1,5.829671E0,1.236214E1,3.8748384E0,0E0,2.0176296E0,7.7628584E0,0E0,8.369412E0,0E0,0E0,9.1310625E0,1.6505268E1,0E0,0E0,0E0,0E0,0E0,0E0],"parents":[2147483647,0,0,1,1,2,2,3,3,5,5,6,6,8,8,11,11,12,12],"right_children":[2,4,6,8,-1,10,12,-1,14,-1,-1,16,18,-1,-1,-1,-1,-1,-1],"split_conditions":[5.142631E1,1.3048084E-2,4E0,1E0,5.8936488E-2,-4.344777E0,4E0,4.559439E-2,6E0,-1.627925E-2,-5.2598745E-2,8.109538E-3,1.5E1,-2.6016325E-2,1.448331E-2,-1.7229242E-2,3.641305E-2,4.82561E-2,-3.2548975E-2],"split_indices":[5,1,10,10,0,0,2,0,10,0,0,1,10,0,0,0,0,0,0],"split_type":[0,0,0,0,0,0,0,0,0,0,0,0,0,0,0,0,0,0,0],"sum_hessian":[2.285034E2,8.45874E1,1.43916E2,7.914298E1,5.444421E0,2.4465874E1,1.1945013E2,5.7304854E0,7.34125E1,6.2371554E0,1.8228718E1,9.437562E1,2.5074503E1,1.5299954E1,5.8112545E1,8.658767E1,7.787948E0,1.5825833E1,9.248671E0],"tree_param":{"num_deleted":"0","num_feature":"11","num_nodes":"19","size_leaf_vector":"1"}},{"base_weights":[-2.2666933E-2,-2.763799E-1,1.6946207E-1,1.6272101E-1,-4.6952242E-1,3.4900218E-1,-3.067896E-1,-1.0112495E-1,4.5840863E-2,-5.597229E-1,7.1927407E-3,5.338284E-1,-3.2593903E-1,5.9791105E-3,-6.025277E-1,-2.2033736E-2,3.3346824E-2,-4.391965E-2,-1.8704431E-2,-2.8846262E-2,3.3011E-2,1.5341873E-2,-2.7761877E-2,-1.2782159E-2,2.6191622E-2,-5.5227477E-2,3.1501763E-3],"categories":[],"categories_nodes":[],"categories_segments":[],"categories_sizes":[],"default_left":[0,0,0,0,0,0,0,0,0,0,0,0,0,0,0,0,0,0,0,0,0,0,0,0,0,0,0],"id":4,"left_children":[1,3,5,7,9,11,13,15,-1,17,-1,19,21,23,25,-1,-1,-1,-1,-1,-1,-1,-1,-1,-1,-1,-1],"loss_changes":[1.108112E1,8.381628E0,1.1174664E1,6.1927056E0,3.8576841E0,1.1958502E1,3.330619E0,6.451972E0,0E0,3.2043266E0,0E0,1.0845369E1,3.2070212E0,2.636425E0,6.2498136E0,0E0,0E0,0E0,0E0,0E0,0E0,0E0,0E0,0E0,0E0,0E0,0E0],"parents":[2147483647,0,0,1,1,2,2,3,3,4,4,5,5,6,6,7,7,9,9,11,11,12,12,13,13,14,14],"right_children":[2,4,6,8,10,12,14,16,-1,18,-1,20,22,24,26,-1,-1,-1,-1,-1,-1,-1,-1,-1,-1,-1,-1],"split_conditions":[1E1,4.3603363E1,1.9E1,2.6188946E-1,7.986726E-3,6.685842E1,5.83234E1,4.0612755E1,4.5840863E-2,3E0,7.1927407E-3,1.3811186E1,2.2673947E-3,2.3179195E0,6.8478455E1,-2.2033736E-2,3.3346824E-2,-4.391965E-2,-1.8704431E-2,-2.8846262E-2,3.3011E-2,1.5341873E-2,-2.7761877E-2,-1.2782159E-2,2.6191622E-2,-5.5227477E-2,3.1501763E-3],"split_indices":[10,7,10,4,1,5,7,7,0,10,0,8,1,0,7,0,0,0,0,0,0,0,0,0,0,0,0],"split_type":[0,0,0,0,0,0,0,0,0,0,0,0,0,0,0,0,0,0,0,0,0,0,0,0,0,0,0],"sum_hessian":[2.253646E2,9.692856E1,1.2843604E2,2.9658585E1,6.726998E1,9.346736E1,3.4968674E1,2.2612677E1,7.045907E0,5.8722054E1,8.547926E0,7.353859E1,1.9928768E1,1.7471172E1,1.7497503E1,1.5976103E1,6.6365733E0,2.0241879E1,3.8480175E1,7.1488214E0,6.638977E1,5.210797E0,1.4717971E1,1.1943562E1,5.527611E0,9.59795E0,7.8995533E0],"tree_param":{"num_deleted":"0","num_feature":"11","num_nodes":"27","size_leaf_vector":"1"}},{"base_weights":[5.7609193E-3,2.610605E-1,-2.5448838E-1,-3.442432E-2,3.1326813E-1,-4.2573676E-1,4.9775967E-1,1.9265608E-1,1.0597091E0,1.6807413E-2,-4.7906438E-1,2.2967294E-2,6.3017905E-2,1.9087672E-2,-1.1691017E-2,6.832507E-2,2.5702616E-2,-2.6441175E-2,1.0417073E-2,2.3784703E-2,-2.8685553E-2],"categories":[],"categories_nodes":[],"categories_segments":[],"categories_sizes":[],"default_left":[0,0,0,0,0,0,0,0,0,0,0,0,0,0,0,0,0,0,0,0,0],"id":5,"left_children":[1,3,5,-1,7,9,11,13,15,-1,17,19,-1,-1,-1,-1,-1,-1,-1,-1,-1],"loss_changes":[1.551972E1,6.060526E0,1.5114243E1,0E0,9.919247E0,4.0114822E0,7.905046E0,7.994589E0,1.8788338E0,0E0,3.153801E0,4.1960807E0,0E0,0E0,0E0,0E0,0E0,0E0,0E0,0E0,0E0],"parents":[2147483647,0,0,1,1,2,2,4,4,5,5,6,6,7,7,8,8,10,10,11,11],"right_children":[2,4,6,-1,8,10,12,14,16,-1,18,20,-1,-1,-1,-1,-1,-1,-1,-1,-1],"split_conditions":[5.8989227E1,3.5373386E-2,4E0,-3.442432E-2,5.5786953E1,5.17692E1,3.925826E1,4.3603363E1,2.7046963E1,1.6807413E-2,8.1889206E1,6.667883E1,6.3017905E-2,1.9087672E-2,-1.1691017E-2,6.832507E-2,2.5702616E-2,-2.6441175E-2,1.0417073E-2,2.3784703E-2,-2.8685553E-2],"split_indices":[7,4,2,0,7,5,8,7,8,0,7,5,0,0,0,0,0,0,0,0,0],"split_type":[0,0,0,0,0,0,0,0,0,0,0,0,0,0,0,0,0,0,0,0,0],"sum_hessian":[2.3158466E2,1.1690246E2,1.146822E2,5.4573436E0,1.11445114E2,9.376969E1,2.0912512E1,9.702556E1,1.4419561E1,5.7870708E0,8.798262E1,1.3523145E1,7.3893676E0,6.7293045E1,2.973251E1,8.267105E0,6.1524563E0,8.225886E1,5.723761E0,7.804376E0,5.718769E0],"tree_param":{"num_deleted":"0","num_feature":"11","num_nodes":"21","size_leaf_vector":"1"}},{"base_weights":[2.675751E-2,2.582711E-1,-2.0341355E-1,8.2529235E-1,1.6921484E-1,-4.8300773E-2,-1.3372801E-1,1.8582916E-2,5.669955E-2,9.3247585E-2,5.0903942E-2,4.8205099E-1,-2.0403782E-1,-2.7551801E-5,4.7000416E-2,9.824065E-3,3.4393445E-2,-1.3127816E-2,2.065706E-2],"categories":[],"categories_nodes":[],"categories_segments":[],"categories_sizes":[],"default_left":[0,0,0,0,0,0,0,0,0,0,0,0,0,0,0,0,0,0,0],"id":6,"left_children":[1,3,5,7,9,-1,11,-1,-1,13,-1,15,17,-1,-1,-1,-1,-1,-1],"loss_changes":[1.212544E1,5.586256E0,5.9380307E0,1.6978378E0,6.3057795E0,0E0,4.6777306E0,0E0,0E0,7.3239174E0,0E0,5.194092E-1,3.5624275E0,0E0,0E0,0E0,0E0,0E0,0E0],"parents":[2147483647,0,0,1,1,2,2,3,3,4,4,6,6,9,9,11,11,12,12],"right_children":[2,4,6,8,10,-1,12,-1,-1,14,-1,16,18,-1,-1,-1,-1,-1,-1],"split_conditions":[5.846495E1,2.8022833E1,5.980284E0,2.3243633E1,5.0573564E-1,-4.8300773E-2,1.6941787E-3,1.8582916E-2,5.669955E-2,5.6852356E1,5.0903942E-2,6.44767E1,1.9979012E1,-2.7551801E-5,4.7000416E-2,9.824065E-3,3.4393445E-2,-1.3127816E-2,2.065706E-2],"split_indices":[7,5,3,5,4,0,9,0,0,7,0,5,0,0,0,0,0,0,0],"split_type":[0,0,0,0,0,0,0,0,0,0,0,0,0,0,0,0,0,0,0],"sum_hessian":[2.2556065E2,1.1239151E2,1.1316915E2,1.4133897E1,9.8257614E1,8.398447E0,1.047707E2,6.615841E0,7.518056E0,9.1205246E1,7.052367E0,1.0136684E1,9.463402E1,8.300936E1,8.195886E0,5.064455E0,5.07223E0,8.6963104E1,7.6709123E0],"tree_param":{"num_deleted":"0","num_feature":"11","num_nodes":"19","size_leaf_vector":"1"}},{"base_weights":[3.3460263E-2,-6.896241E-2,5.917356E-1,1.4363316E-1,-3.0738595E-1,8.706682E-1,1.1283865E-2,3.362836E-2,7.2489357E-1,-4.7347215E-1,1.3989455E-1,1.0921851E0,1.0123005E-2,1.571941E-2,-1.1902448E-2,-3.3611797E-3,4.014963E-2,7.2039166E-3,7.893159E-2,-2.7939295E-2,2.0332651E-2,-1.6780738E-2,3.1829912E-2,1.4607089E-2,7.889756E-2],"categories":[],"categories_nodes":[],"categories_segments":[],"categories_sizes":[],"default_left":[0,0,0,0,0,0,0,0,0,0,0,0,0,0,0,0,0,0,0,0,0,0,0,0,0],"id":7,"left_children":[1,3,5,7,9,11,13,15,17,19,21,23,-1,-1,-1,-1,-1,-1,-1,-1,-1,-1,-1,-1,-1],"loss_changes":[1.3059135E1,9.840779E0,5.7214575E0,6.5521593E0,6.857671E0,3.315956E0,1.0197057E0,6.845883E0,7.864477E0,5.2501345E0,6.242764E0,6.4252377E0,0E0,0E0,0E0,0E0,0E0,0E0,0E0,0E0,0E0,0E0,0E0,0E0,0E0],"parents":[2147483647,0,0,1,1,2,2,3,3,4,4,5,5,6,6,7,7,8,8,9,9,10,10,11,11],"right_children":[2,4,6,8,10,12,14,16,18,20,22,24,-1,-1,-1,-1,-1,-1,-1,-1,-1,-1,-1,-1,-1],"split_conditions":[4E0,5.8989227E1,1.5E1,5.5786953E1,1.2067152E1,6.685842E1,5.5586746E1,1.2459173E1,4.255137E-3,7.986726E-3,1E1,5.0913853E1,1.0123005E-2,1.571941E-2,-1.1902448E-2,-3.3611797E-3,4.014963E-2,7.2039166E-3,7.893159E-2,-2.7939295E-2,2.0332651E-2,-1.6780738E-2,3.1829912E-2,1.4607089E-2,7.889756E-2],"split_indices":[2,7,10,7,0,5,5,0,1,1,10,5,0,0,0,0,0,0,0,0,0,0,0,0,0],"split_type":[0,0,0,0,0,0,0,0,0,0,0,0,0,0,0,0,0,0,0,0,0,0,0,0,0],"sum_hessian":[2.2667256E2,1.9227394E2,3.4398617E1,1.0185251E2,9.042144E1,2.2896065E1,1.1502551E1,8.6533676E1,1.5318831E1,6.589461E1,2.4526834E1,1.6719053E1,6.1770124E0,5.073714E0,6.428837E0,7.731188E1,9.221788E0,9.812174E0,5.506657E0,6.040448E1,5.490123E0,1.2696455E1,1.183038E1,6.9212866E0,9.797767E0],"tree_param":{"num_deleted":"0","num_feature":"11","num_nodes":"25","size_leaf_vector":"1"}},{"base_weights":[2.9105214E-2,3.903237E-1,-1.1786588E-1,5.783002E-1,-8.235921E-2,-2.4366306E-1,4.6786493E-1,1.2493702E-1,7.397821E-1,-5.1692474E-1,4.7260832E-2,-3.2082942E-1,3.926265E-1,1.0732839E-1,6.190672E-2,-1.8098472E-2,3.0296985E-2,2.4377378E-2,6.057639E-2,-3.9967593E-2,-8.085868E-3,-1.2308552E-2,-3.4346312E-2,5.8113243E-2,-6.059754E-3,4.582436E-2,-1.978E-2],"categories":[],"categories_nodes":[],"categories_segments":[],"categories_sizes":[],"default_left":[0,0,0,0,0,0,0,0,0,0,0,0,0,0,0,0,0,0,0,0,0,0,0,0,0,0,0],"id":8,"left_children":[1,3,5,7,9,11,13,15,17,19,-1,21,23,25,-1,-1,-1,-1,-1,-1,-1,-1,-1,-1,-1,-1,-1],"loss_changes":[1.2086777E1,5.8964043E0,1.2049204E1,3.3645926E0,9.242958E0,6.7053638E0,7.9152274E0,3.4057033E0,3.528242E0,1.3177736E0,0E0,3.1123114E0,6.0501246E0,8.841486E0,0E0,0E0,0E0,0E0,0E0,0E0,0E0,0E0,0E0,0E0,0E0,0E0,0E0],"parents":[2147483647,0,0,1,1,2,2,3,3,4,4,5,5,6,6,7,7,8,8,9,9,11,11,12,12,13,13],"right_children":[2,4,6,8,10,12,14,16,18,20,-1,22,24,26,-1,-1,-1,-1,-1,-1,-1,-1,-1,-1,-1,-1,-1],"split_conditions":[4.3603363E1,4.090686E1,4E0,3.928545E-3,4.916533E1,8.109538E-3,6.963103E1,4.36217E0,4.255696E1,5.5075646E-3,4.7260832E-2,5.377556E-3,9.958365E-3,2.5173381E-3,6.190672E-2,-1.8098472E-2,3.0296985E-2,2.4377378E-2,6.057639E-2,-3.9967593E-2,-8.085868E-3,-1.2308552E-2,-3.4346312E-2,5.8113243E-2,-6.059754E-3,4.582436E-2,-1.978E-2],"split_indices":[7,8,2,9,8,9,7,0,5,9,0,9,9,9,0,0,0,0,0,0,0,0,0,0,0,0,0],"split_type":[0,0,0,0,0,0,0,0,0,0,0,0,0,0,0,0,0,0,0,0,0,0,0,0,0,0,0],"sum_hessian":[2.2580489E2,6.4825096E1,1.6097978E2,4.6220634E1,1.860446E1,1.3299953E2,2.7980253E1,1.2605151E1,3.3615486E1,1.3424246E1,5.1802144E0,1.1905665E2,1.3942881E1,1.983535E1,8.144904E0,6.387113E0,6.218038E0,2.3228884E1,1.0386601E1,6.781701E0,6.6425447E0,1.0027908E2,1.8777567E1,5.076676E0,8.866205E0,7.287779E0,1.2547571E1],"tree_param":{"num_deleted":"0","num_feature":"11","num_nodes":"27","size_leaf_vector":"1"}},{"base_weights":[1.3174705E-2,1.21650286E-1,-3.7569457E-1,3.8518272E-2,5.8066E-1,-4.8512852E-1,2.1326566E-2,2.0623009E-1,-2.3827586E-1,5.4993253E-2,1.1669625E0,6.879321E-3,-5.751341E-1,4.349206E-2,6.1303633E-3,-4.708469E-2,-4.5808326E-3,2.6867408E-2,-2.6545355E-2,3.5529424E-2,7.7072725E-2,-3.6109615E-2,-3.964724E-3],"categories":[],"categories_nodes":[],"categories_segments":[],"categories_sizes":[],"default_left":[0,0,0,0,0,0,0,0,0,0,0,0,0,0,0,0,0,0,0,0,0,0,0],"id":9,"left_children":[1,3,5,7,9,11,-1,13,15,17,19,-1,21,-1,-1,-1,-1,-1,-1,-1,-1,-1,-1],"loss_changes":[9.555016E0,6.7323456E0,4.5449433E0,7.0562487E0,8.27967E0,2.542409E0,0E0,5.139079E0,5.836849E0,4.6160336E0,1.0835419E0,0E0,2.756793E0,0E0,0E0,0E0,0E0,0E0,0E0,0E0,0E0,0E0,0E0],"parents":[2147483647,0,0,1,1,2,2,3,3,4,4,5,5,7,7,8,8,9,9,10,10,12,12],"right_children":[2,4,6,8,10,12,-1,14,16,18,20,-1,22,-1,-1,-1,-1,-1,-1,-1,-1,-1,-1],"split_conditions":[6.667883E1,4E0,7.932445E1,5.846495E1,5.8992626E1,4.182593E-2,2.1326566E-2,1.4538536E1,3E0,4.483612E1,6.2788776E1,6.879321E-3,3.978408E1,4.349206E-2,6.1303633E-3,-4.708469E-2,-4.5808326E-3,2.6867408E-2,-2.6545355E-2,3.5529424E-2,7.7072725E-2,-3.6109615E-2,-3.964724E-3],"split_indices":[5,2,5,7,6,4,0,8,10,7,5,0,8,0,0,0,0,0,0,0,0,0,0],"split_type":[0,0,0,0,0,0,0,0,0,0,0,0,0,0,0,0,0,0,0,0,0,0,0],"sum_hessian":[2.244309E2,1.760177E2,4.8413193E1,1.4994485E2,2.607285E1,4.294959E1,5.4636054E0,9.35295E1,5.641535E1,1.4324023E1,1.1748826E1,5.3571086E0,3.759248E1,9.414699E0,8.411481E1,8.797786E0,4.7617565E1,7.9016714E0,6.4223514E0,6.601451E0,5.1473746E0,2.8641392E1,8.951087E0],"tree_param":{"num_deleted":"0","num_feature":"11","num_nodes":"23","size_leaf_vector":"1"}},{"base_weights":[-1.7155832E-2,9.298377E-2,-4.037632E-1,-9.000936E-3,6.27411E-1,1.6189322E-2,-4.9535698E-1,-2.4498028E-1,2.0585555E-1,3.494649E-1,7.51013E-2,-3.2058367E-1,-7.3251235E-1,4.105687E-3,-2.5023779E-2,-2.6333362E-2,1.3979082E-2,3.422665E-2,-3.478224E-2,-2.4803478E-2,1.9301964E-2,-5.4076392E-2,-2.5891332E-2],"categories":[],"categories_nodes":[],"categories_segments":[],"categories_sizes":[],"default_left":[0,0,0,0,0,0,0,0,0,0,0,0,0,0,0,0,0,0,0,0,0,0,0],"id":10,"left_children":[1,3,5,7,9,-1,11,13,15,17,-1,19,21,-1,-1,-1,-1,-1,-1,-1,-1,-1,-1],"loss_changes":[9.618781E0,9.594742E0,3.4975042E0,7.5911875E0,6.332281E0,0E0,1.6250963E0,6.0027514E0,4.380862E0,8.428322E0,0E0,3.6155388E0,8.08198E-1,0E0,0E0,0E0,0E0,0E0,0E0,0E0,0E0,0E0,0E0],"parents":[2147483647,0,0,1,1,2,2,3,3,4,4,6,6,7,7,8,8,9,9,11,11,12,12],"right_children":[2,4,6,8,10,-1,12,14,16,18,-1,20,22,-1,-1,-1,-1,-1,-1,-1,-1,-1,-1],"split_conditions":[6.685842E1,4E0,1.7993804E-3,4.0958957E-3,6.340912E1,1.6189322E-2,-4.079924E0,5.228734E1,-9.458869E0,5.8631187E1,7.51013E-2,3.6127884E1,6.905068E1,4.105687E-3,-2.5023779E-2,-2.6333362E-2,1.3979082E-2,3.422665E-2,-3.478224E-2,-2.4803478E-2,1.9301964E-2,-5.4076392E-2,-2.5891332E-2],"split_indices":[5,2,1,1,5,0,0,5,0,5,0,8,7,0,0,0,0,0,0,0,0,0,0],"split_type":[0,0,0,0,0,0,0,0,0,0,0,0,0,0,0,0,0,0,0,0,0,0,0],"sum_hessian":[2.2401318E2,1.7493568E2,4.90775E1,1.4772794E2,2.720775E1,5.2042184E0,4.3873283E1,7.0336426E1,7.739151E1,2.1708511E1,5.4992394E0,2.6612677E1,1.7260607E1,3.1143738E1,3.919269E1,6.5151496E0,7.087636E1,1.6699554E1,5.0089574E0,2.155707E1,5.0556064E0,5.035938E0,1.22246685E1],"tree_param":{"num_deleted":"0","num_feature":"11","num_nodes":"23","size_leaf_vector":"1"}},{"base_weights":[2.2671347E-2,1.2407447E-1,-3.3640552E-1,-9.982348E-2,3.6425543E-1,4.6503954E-2,-4.8618945E-1,3.123209E-1,-4.0357354E-1,5.664078E-1,-1.1511539E-1,-1.9190552E-2,1.855616E-2,-4.445608E-2,-3.0926478E-1,2.5057241E-2,-4.3253074E-3,-1.0185464E-2,-4.2015556E-2,4.3526437E-2,1.7281016E-2,-2.3172697E-2,1.0080469E-2,9.878091E-3,-3.1009356E-2],"categories":[],"categories_nodes":[],"categories_segments":[],"categories_sizes":[],"default_left":[0,0,0,0,0,0,0,0,0,0,0,0,0,0,0,0,0,0,0,0,0,0,0,0,0],"id":11,"left_children":[1,3,5,7,9,11,13,15,17,19,21,-1,-1,-1,23,-1,-1,-1,-1,-1,-1,-1,-1,-1,-1],"loss_changes":[8.256867E0,9.536734E0,2.887621E0,1.1670585E1,8.345677E0,2.2320013E0,2.2910385E0,3.0323975E0,4.5010204E0,3.7461472E0,2.9814475E0,0E0,0E0,0E0,4.3056507E0,0E0,0E0,0E0,0E0,0E0,0E0,0E0,0E0,0E0,0E0],"parents":[2147483647,0,0,1,1,2,2,3,3,4,4,5,5,6,6,7,7,8,8,9,9,10,10,14,14],"right_children":[2,4,6,8,10,12,14,16,18,20,22,-1,-1,-1,24,-1,-1,-1,-1,-1,-1,-1,-1,-1,-1],"split_conditions":[6.685842E1,1.2E1,2.5380108E1,1.6241761E0,1.9E1,1.3E1,6.9902245E1,1E0,5.7378418E1,2.257342E0,2.8805578E0,-1.9190552E-2,1.855616E-2,-4.445608E-2,1.0155759E-1,2.5057241E-2,-4.3253074E-3,-1.0185464E-2,-4.2015556E-2,4.3526437E-2,1.7281016E-2,-2.3172697E-2,1.0080469E-2,9.878091E-3,-3.1009356E-2],"split_indices":[5,10,8,0,10,10,6,2,5,0,0,0,0,0,4,0,0,0,0,0,0,0,0,0,0],"split_type":[0,0,0,0,0,0,0,0,0,0,0,0,0,0,0,0,0,0,0,0,0,0,0,0,0],"sum_hessian":[2.2461897E2,1.7566557E2,4.8953403E1,9.1216995E1,8.444858E1,1.395871E1,3.4994694E1,3.8690895E1,5.25261E1,5.927186E1,2.5176718E1,5.923793E0,8.034917E0,9.449277E0,2.5545416E1,2.6084627E1,1.2606268E1,3.7041313E1,1.5484785E1,2.3693172E1,3.5578686E1,1.1769346E1,1.34073715E1,9.851436E0,1.5693979E1],"tree_param":{"num_deleted":"0","num_feature":"11","num_nodes":"25","size_leaf_vector":"1"}},{"base_weights":[-5.13165E-3,1.9435605E-1,-2.7663514E-1,8.445353E-1,1.1606477E-1,-6.552355E-1,-1.6831239E-1,1.0739094E-2,6.092577E-2,2.7715141E-2,6.1643815E-1,-8.1761014E-1,-5.957579E-3,-2.2580504E-2,-7.252141E-1,-3.6494773E-2,5.745603E-3,5.300321E-2,9.025058E-3,-1.4162444E-2,-5.437686E-2,-1.9073047E-2,1.1587347E-2,-1.2058238E-2,-5.6369312E-2],"categories":[],"categories_nodes":[],"categories_segments":[],"categories_sizes":[],"default_left":[0,0,0,0,0,0,0,0,0,0,0,0,0,0,0,0,0,0,0,0,0,0,0,0,0],"id":12,"left_children":[1,3,5,7,9,11,13,-1,-1,15,17,19,-1,21,23,-1,-1,-1,-1,-1,-1,-1,-1,-1,-1],"loss_changes":[1.2261299E1,6.5455923E0,3.8217168E0,3.0042925E0,5.183819E0,1.7291126E0,6.142995E0,0E0,0E0,6.758614E0,3.213953E0,1.9903545E0,0E0,5.672906E0,2.7861528E0,0E0,0E0,0E0,0E0,0E0,0E0,0E0,0E0,0E0,0E0],"parents":[2147483647,0,0,1,1,2,2,3,3,4,4,5,5,6,6,9,9,10,10,11,11,13,13,14,14],"right_children":[2,4,6,8,10,12,14,-1,-1,16,18,20,-1,22,24,-1,-1,-1,-1,-1,-1,-1,-1,-1,-1],"split_conditions":[5.865572E1,2.783959E1,6.220584E1,2.3243633E1,4E0,1.898009E1,1.9189164E-1,1.0739094E-2,6.092577E-2,4.2757582E-2,4.0429626E0,1.5886369E1,-5.957579E-3,2E0,2.3343801E1,-3.6494773E-2,5.745603E-3,5.300321E-2,9.025058E-3,-1.4162444E-2,-5.437686E-2,-1.9073047E-2,1.1587347E-2,-1.2058238E-2,-5.6369312E-2],"split_indices":[5,5,5,5,2,3,4,0,0,4,0,8,0,2,3,0,0,0,0,0,0,0,0,0,0],"split_type":[0,0,0,0,0,0,0,0,0,0,0,0,0,0,0,0,0,0,0,0,0,0,0,0,0],"sum_hessian":[2.2439091E2,1.2951424E2,9.487668E1,1.28674965E1,1.16646736E2,1.9983421E1,7.489326E1,5.38086E0,7.486636E0,1.00038574E2,1.6608164E1,1.4934694E1,5.0487266E0,6.018452E1,1.4708737E1,9.564731E0,9.047384E1,7.5219E0,9.086263E0,5.700013E0,9.234681E0,2.4754154E1,3.5430367E1,7.400837E0,7.3079004E0],"tree_param":{"num_deleted":"0","num_feature":"11","num_nodes":"25","size_leaf_vector":"1"}},{"base_weights":[2.5739178E-2,1.8663743E-1,-1.7318973E-1,1.0066172E-1,6.7206454E-1,-3.5818362E-1,6.2171165E-2,4.3483146E-2,4.221853E-2,5.829565E-2,4.041039E-1,-1.9897081E-2,-5.5873805E-1,4.0150195E-1,-3.4860927E-1,-1.4368293E-2,1.212654E-2,3.903137E-2,-5.0214003E-5,1.35621E-2,-3.0235682E-2,-4.3939978E-2,-1.096576E-2,4.565571E-3,4.0542882E-2,-4.1978467E-2,4.1621607E-3],"categories":[],"categories_nodes":[],"categories_segments":[],"categories_sizes":[],"default_left":[0,0,0,0,0,0,0,0,0,0,0,0,0,0,0,0,0,0,0,0,0,0,0,0,0,0,0],"id":13,"left_children":[1,3,5,7,9,11,13,-1,15,-1,17,19,21,23,25,-1,-1,-1,-1,-1,-1,-1,-1,-1,-1,-1,-1],"loss_changes":[7.31522E0,5.202428E0,4.4748545E0,4.837397E0,2.0198288E0,3.883604E0,6.5320272E0,0E0,6.7933016E0,0E0,2.0955265E0,3.9784768E0,3.7184896E0,3.173728E0,4.5816965E0,0E0,0E0,0E0,0E0,0E0,0E0,0E0,0E0,0E0,0E0,0E0,0E0],"parents":[2147483647,0,0,1,1,2,2,3,3,4,4,5,5,6,6,8,8,10,10,11,11,12,12,13,13,14,14],"right_children":[2,4,6,8,10,12,14,-1,16,-1,18,20,22,24,26,-1,-1,-1,-1,-1,-1,-1,-1,-1,-1,-1,-1],"split_conditions":[5.894826E1,6.2911625E1,1.990337E1,1E0,1.5268562E1,6.3108776E1,2.5070986E1,4.3483146E-2,1E1,5.829565E-2,3.781516E-3,2.0836268E-1,1.3E1,3.9049285E-3,1.1E1,-1.4368293E-2,1.212654E-2,3.903137E-2,-5.0214003E-5,1.35621E-2,-3.0235682E-2,-4.3939978E-2,-1.096576E-2,4.565571E-3,4.0542882E-2,-4.1978467E-2,4.1621607E-3],"split_indices":[5,6,3,10,3,6,3,0,10,0,1,0,10,1,10,0,0,0,0,0,0,0,0,0,0,0,0],"split_type":[0,0,0,0,0,0,0,0,0,0,0,0,0,0,0,0,0,0,0,0,0,0,0,0,0,0,0],"sum_hessian":[2.265385E2,1.25274994E2,1.012635E2,1.0745128E2,1.7823711E1,5.640627E1,4.485723E1,6.6089945E0,1.00842285E2,5.090646E0,1.2733066E1,2.1403307E1,3.500296E1,2.4577356E1,2.0279873E1,3.7956257E1,6.288603E1,6.11893E0,6.6141357E0,1.4647526E1,6.7557807E0,1.7197418E1,1.7805544E1,1.4678066E1,9.899289E0,9.048638E0,1.12312355E1],"tree_param":{"num_deleted":"0","num_feature":"11","num_nodes":"27","size_leaf_vector":"1"}},{"base_weights":[5.038076E-2,1.5550077E-1,-3.3343178E-1,8.408124E-2,5.298344E-1,1.0564738E-2,-4.7989303E-1,2.4313897E-1,-1.8280716E-1,2.202082E-1,6.8254575E-2,-1.5334797E-2,1.6710635E-2,-6.399453E-1,-2.5542258E-4,8.231038E-3,5.8719307E-2,9.976036E-3,-2.222346E-2,-7.1331756E-3,3.625576E-2,3.6127695E-3,-4.095428E-2],"categories":[],"categories_nodes":[],"categories_segments":[],"categories_sizes":[],"default_left":[0,0,0,0,0,0,0,0,0,0,0,0,0,0,0,0,0,0,0,0,0,0,0],"id":14,"left_children":[1,3,5,7,9,11,13,15,17,19,-1,-1,-1,21,-1,-1,-1,-1,-1,-1,-1,-1,-1],"loss_changes":[9.055881E0,4.657269E0,2.438478E0,6.3644924E0,6.9379773E0,1.6839478E0,2.5726075E0,6.659023E0,5.707548E0,4.063174E0,0E0,0E0,0E0,3.2925777E0,0E0,0E0,0E0,0E0,0E0,0E0,0E0,0E0,0E0],"parents":[2147483647,0,0,1,1,2,2,3,3,4,4,5,5,6,6,7,7,8,8,9,9,13,13],"right_children":[2,4,6,8,10,12,14,16,18,20,-1,-1,-1,22,-1,-1,-1,-1,-1,-1,-1,-1,-1],"split_conditions":[6.667883E1,4E0,2.5380108E1,5.5352505E1,6.738571E1,6.577007E1,4.1395283E1,4.916533E1,1.1165518E0,3.1192402E1,6.8254575E-2,-1.5334797E-2,1.6710635E-2,5.9612072E1,-2.5542258E-4,8.231038E-3,5.8719307E-2,9.976036E-3,-2.222346E-2,-7.1331756E-3,3.625576E-2,3.6127695E-3,-4.095428E-2],"split_indices":[5,2,8,5,7,6,8,8,0,8,0,0,0,7,0,0,0,0,0,0,0,0,0],"split_type":[0,0,0,0,0,0,0,0,0,0,0,0,0,0,0,0,0,0,0,0,0,0,0],"sum_hessian":[2.2216829E2,1.748693E2,4.7299E1,1.4787976E2,2.698953E1,1.4401582E1,3.289742E1,9.2713936E1,5.5165825E1,2.0612286E1,6.377243E0,7.2990036E0,7.102578E0,2.4343304E1,8.554114E0,8.6589874E1,6.124061E0,2.2511133E1,3.265469E1,1.2410458E1,8.201829E0,5.012393E0,1.9330912E1],"tree_param":{"num_deleted":"0","num_feature":"11","num_nodes":"23","size_leaf_vector":"1"}},{"base_weights":[3.084668E-2,-6.497371E-2,5.0614417E-1,1.6295324E-1,-3.4733114E-1,7.388928E-1,4.3716E-2,-3.3488892E-2,2.2673011E-1,-4.1773155E-1,2.9569192E-2,4.1385326E-1,7.336651E-2,-2.2010544E-2,2.1617686E-2,5.8957785E-3,4.4695716E-2,2.6072565E-2,-2.4908407E-2,4.3237314E-2,2.6141133E-3],"categories":[],"categories_nodes":[],"categories_segments":[],"categories_sizes":[],"default_left":[0,0,0,0,0,0,0,0,0,0,0,0,0,0,0,0,0,0,0,0,0],"id":15,"left_children":[1,3,5,7,9,11,13,-1,15,17,-1,19,-1,-1,-1,-1,-1,-1,-1,-1,-1],"loss_changes":[1.03473425E1,1.2243544E1,4.0695972E0,5.7528763E0,5.857893E0,5.380331E0,2.7899973E0,0E0,7.060676E0,6.270501E0,0E0,3.0326076E0,0E0,0E0,0E0,0E0,0E0,0E0,0E0,0E0,0E0],"parents":[2147483647,0,0,1,1,2,2,3,3,4,4,5,5,6,6,8,8,9,9,11,11],"right_children":[2,4,6,8,10,12,14,-1,16,18,-1,20,-1,-1,-1,-1,-1,-1,-1,-1,-1],"split_conditions":[4E0,5.8989227E1,1.5E1,4.2757582E-2,2.140958E1,6.749963E1,1.0595672E-1,-3.3488892E-2,5.5786953E1,1.6398275E-3,2.9569192E-2,1.3142725E1,7.336651E-2,-2.2010544E-2,2.1617686E-2,5.8957785E-3,4.4695716E-2,2.6072565E-2,-2.4908407E-2,4.3237314E-2,2.6141133E-3],"split_indices":[2,7,10,4,0,7,4,0,7,1,0,3,0,0,0,0,0,0,0,0,0],"split_type":[0,0,0,0,0,0,0,0,0,0,0,0,0,0,0,0,0,0,0,0,0],"sum_hessian":[2.2547636E2,1.883651E2,3.7111267E1,1.0446271E2,8.390239E1,2.4288544E1,1.2822724E1,6.7554393E0,9.770727E1,7.8565254E1,5.3371286E0,1.7878866E1,6.4096775E0,5.6520987E0,7.170626E0,8.501798E1,1.268929E1,5.765394E0,7.2799866E1,7.3373146E0,1.0541552E1],"tree_param":{"num_deleted":"0","num_feature":"11","num_nodes":"21","size_leaf_vector":"1"}},{"base_weights":[2.2887113E-4,1.5491821E-1,-1.9914459E-1,5.2442767E-2,4.9208882E-1,-3.3263052E-1,3.9401484E-1,1.4275351E-1,-6.3188976E-1,-9.604117E-3,7.546692E-1,1.942605E-2,-4.6604028E-1,3.7468176E-2,4.8509147E-2,3.328859E-3,3.217038E-2,-1.4854579E-2,-4.257719E-2,-2.1141523E-3,5.0496843E-2,2.3132335E-2,-2.2200413E-2,8.469236E-3,-2.663512E-2,-2.0548014E-2,2.8774729E-2],"categories":[],"categories_nodes":[],"categories_segments":[],"categories_sizes":[],"default_left":[0,0,0,0,0,0,0,0,0,0,0,0,0,0,0,0,0,0,0,0,0,0,0,0,0,0,0],"id":16,"left_children":[1,3,5,7,9,11,13,15,17,-1,19,21,23,25,-1,-1,-1,-1,-1,-1,-1,-1,-1,-1,-1,-1,-1],"loss_changes":[6.907189E0,4.3315916E0,7.878582E0,6.13676E0,5.40435E0,3.7860212E0,3.7503061E0,3.2845583E0,5.9937096E-1,0E0,4.387908E0,4.941808E0,2.562171E0,3.234646E0,0E0,0E0,0E0,0E0,0E0,0E0,0E0,0E0,0E0,0E0,0E0,0E0,0E0],"parents":[2147483647,0,0,1,1,2,2,3,3,4,4,5,5,6,6,7,7,8,8,10,10,11,11,12,12,13,13],"right_children":[2,4,6,8,10,12,14,16,18,-1,20,22,24,26,-1,-1,-1,-1,-1,-1,-1,-1,-1,-1,-1,-1,-1],"split_conditions":[5.865572E1,1.2816941E1,3.978408E1,9.774942E0,1.2948579E1,1.6162258E1,3E0,4E0,9.4288096E-2,-9.604117E-3,2.5036645E-3,1.405179E1,4.5128673E-2,3.9049285E-3,4.8509147E-2,3.328859E-3,3.217038E-2,-1.4854579E-2,-4.257719E-2,-2.1141523E-3,5.0496843E-2,2.3132335E-2,-2.2200413E-2,8.469236E-3,-2.663512E-2,-2.0548014E-2,2.8774729E-2],"split_indices":[5,0,8,0,3,8,2,2,4,0,1,3,4,1,0,0,0,0,0,0,0,0,0,0,0,0,0],"split_type":[0,0,0,0,0,0,0,0,0,0,0,0,0,0,0,0,0,0,0,0,0,0,0,0,0,0,0],"sum_hessian":[2.2196127E2,1.2511239E2,9.6848885E1,9.683661E1,2.827578E1,7.941613E1,1.743276E1,8.624618E1,1.0590433E1,7.9167156E0,2.0359064E1,2.2058937E1,5.735719E1,1.1426684E1,6.0060763E0,7.583985E1,1.0406325E1,5.127541E0,5.462892E0,5.1415052E0,1.5217558E1,1.1276237E1,1.0782701E1,5.2996674E0,5.205752E1,6.361086E0,5.065598E0],"tree_param":{"num_deleted":"0","num_feature":"11","num_nodes":"27","size_leaf_vector":"1"}},{"base_weights":[-1.6128523E-2,-3.139547E-1,6.822531E-2,-7.7793926E-1,-4.697795E-2,1.6474125E-1,-3.3873934E-1,-4.470484E-2,-1.99308E-2,2.6004037E-2,-2.8938913E-1,-5.8906194E-2,2.9573676E-1,-7.797523E-1,1.5475821E-1,1.3868992E-2,-2.7867114E-2,3.8954362E-3,-4.3693468E-2,9.083768E-3,3.9107103E-2,-4.628673E-2,-1.694553E-2,2.5985217E-2,-2.0438224E-2],"categories":[],"categories_nodes":[],"categories_segments":[],"categories_sizes":[],"default_left":[0,0,0,0,0,0,0,0,0,0,0,0,0,0,0,0,0,0,0,0,0,0,0,0,0],"id":17,"left_children":[1,3,5,7,9,11,13,-1,-1,-1,15,17,19,21,23,-1,-1,-1,-1,-1,-1,-1,-1,-1,-1],"loss_changes":[5.686198E0,6.1505103E0,6.9899263E0,4.445572E-1,4.6548986E0,4.2176495E0,7.5571527E0,0E0,0E0,0E0,3.7383342E0,6.0656433E0,4.883172E0,8.581362E-1,3.7002168E0,0E0,0E0,0E0,0E0,0E0,0E0,0E0,0E0,0E0,0E0],"parents":[2147483647,0,0,1,1,2,2,3,3,4,4,5,5,6,6,10,10,11,11,12,12,13,13,14,14],"right_children":[2,4,6,8,10,12,14,-1,-1,-1,16,18,20,22,24,-1,-1,-1,-1,-1,-1,-1,-1,-1,-1],"split_conditions":[5E0,3.4335467E-3,1.9E1,7.81283E0,1E0,1.1E1,1.6643898E1,-4.470484E-2,-1.99308E-2,2.6004037E-2,-4.344777E0,2.535112E1,1.3249773E1,1.672836E-1,7.202012E1,1.3868992E-2,-2.7867114E-2,3.8954362E-3,-4.3693468E-2,9.083768E-3,3.9107103E-2,-4.628673E-2,-1.694553E-2,2.5985217E-2,-2.0438224E-2],"split_indices":[10,1,10,0,10,10,3,0,0,0,0,3,0,4,6,0,0,0,0,0,0,0,0,0,0],"split_type":[0,0,0,0,0,0,0,0,0,0,0,0,0,0,0,0,0,0,0,0,0,0,0,0,0],"sum_hessian":[2.2448376E2,4.8946735E1,1.7553702E2,1.7178308E1,3.1768429E1,1.4236812E2,3.31689E1,1.2112191E1,5.066117E0,9.170635E0,2.2597794E1,5.279021E1,8.957791E1,1.7209562E1,1.5959339E1,7.2427974E0,1.5354996E1,4.597619E1,6.8140187E0,7.367478E1,1.5903135E1,1.2102097E1,5.1074657E0,9.733519E0,6.225821E0],"tree_param":{"num_deleted":"0","num_feature":"11","num_nodes":"25","size_leaf_vector":"1"}},{"base_weights":[4.865306E-2,1.2662192E-1,-2.5504106E-1,4.77871E-2,5.17001E-1,-4.5029405E-1,1.3737604E-1,5.609262E-1,-1.3111216E-2,2.6272723E-1,7.163837E-2,-1.1950337E-1,-7.666624E-1,2.6108354E-2,-6.2397956E-3,-2.1508727E-3,5.2781194E-2,4.4412115E-3,-1.5003872E-2,2.4545632E-2,-2.7076704E-2,-1.7899027E-2,1.5635747E-2,-1.0394966E-2,-5.26132E-2],"categories":[],"categories_nodes":[],"categories_segments":[],"categories_sizes":[],"default_left":[0,0,0,0,0,0,0,0,0,0,0,0,0,0,0,0,0,0,0,0,0,0,0,0,0],"id":18,"left_children":[1,3,5,7,9,11,13,15,17,19,-1,21,23,-1,-1,-1,-1,-1,-1,-1,-1,-1,-1,-1,-1],"loss_changes":[5.421283E0,5.5691357E0,3.6496284E0,4.7674384E0,6.7109966E0,3.2050428E0,1.711937E0,4.880329E0,4.0383744E0,4.862485E0,0E0,1.8213574E0,2.3213253E0,0E0,0E0,0E0,0E0,0E0,0E0,0E0,0E0,0E0,0E0,0E0,0E0],"parents":[2147483647,0,0,1,1,2,2,3,3,4,4,5,5,6,6,7,7,8,8,9,9,11,11,12,12],"right_children":[2,4,6,8,10,12,14,16,18,20,-1,22,24,-1,-1,-1,-1,-1,-1,-1,-1,-1,-1,-1,-1],"split_conditions":[6.685842E1,4E0,7.4133095E1,2.9355093E1,6.3735115E1,6.985147E1,7.62302E1,2E0,3.7594627E1,5.8631187E1,7.163837E-2,6.8591774E1,2.5173381E-3,2.6108354E-2,-6.2397956E-3,-2.1508727E-3,5.2781194E-2,4.4412115E-3,-1.5003872E-2,2.4545632E-2,-2.7076704E-2,-1.7899027E-2,1.5635747E-2,-1.0394966E-2,-5.26132E-2],"split_indices":[5,2,5,5,5,5,5,2,8,5,0,5,1,0,0,0,0,0,0,0,0,0,0,0,0],"split_type":[0,0,0,0,0,0,0,0,0,0,0,0,0,0,0,0,0,0,0,0,0,0,0,0,0],"sum_hessian":[2.2658821E2,1.8076309E2,4.5825115E1,1.5132608E2,2.9437021E1,3.0501268E1,1.5323848E1,1.5182765E1,1.3614331E2,2.4046978E1,5.3900433E0,1.5584281E1,1.4916987E1,5.807887E0,9.515961E0,7.2476425E0,7.935123E0,1.0096813E2,3.517518E1,1.9035753E1,5.0112233E0,1.0153713E1,5.430568E0,5.6300507E0,9.286937E0],"tree_param":{"num_deleted":"0","num_feature":"11","num_nodes":"25","size_leaf_vector":"1"}},{"base_weights":[-1.8892255E-2,1.8331526E-1,-1.3505955E-1,4.970141E-2,8.470446E-2,-2.3775539E-1,3.1011134E-1,3.0738556E-1,-1.1216464E-1,-3.2763517E-1,4.707485E-1,5.8123404E-1,-1.4123513E-2,3.274147E-2,-6.3104293E-4,-4.06734E-2,1.0137888E-2,-1.864068E-2,2.184859E-2,4.6946477E-2,4.140392E-3,2.6114215E-4,5.4415405E-2],"categories":[],"categories_nodes":[],"categories_segments":[],"categories_sizes":[],"default_left":[0,0,0,0,0,0,0,0,0,0,0,0,0,0,0,0,0,0,0,0,0,0,0],"id":19,"left_children":[1,3,5,-1,7,9,11,13,15,17,19,21,-1,-1,-1,-1,-1,-1,-1,-1,-1,-1,-1],"loss_changes":[5.349341E0,6.5618424E0,6.681822E0,0E0,3.331634E0,7.6694336E0,4.5869007E0,3.9618657E0,9.14307E0,3.801011E0,2.409831E0,5.6063013E0,0E0,0E0,0E0,0E0,0E0,0E0,0E0,0E0,0E0,0E0,0E0],"parents":[2147483647,0,0,1,1,2,2,4,4,5,5,6,6,7,7,8,8,9,9,10,10,11,11],"right_children":[2,4,6,-1,8,10,12,14,16,18,20,22,-1,-1,-1,-1,-1,-1,-1,-1,-1,-1,-1],"split_conditions":[4.4960426E1,7.8635726E0,4E0,4.970141E-2,2.0352733E0,8.109538E-3,1.5E1,3.7135056E1,1.4781138E1,2.0884504E1,-1.8468723E0,-1.6636553E-1,-1.4123513E-2,3.274147E-2,-6.3104293E-4,-4.06734E-2,1.0137888E-2,-1.864068E-2,2.184859E-2,4.6946477E-2,4.140392E-3,2.6114215E-4,5.4415405E-2],"split_indices":[6,3,2,0,0,1,10,8,3,0,0,0,0,0,0,0,0,0,0,0,0,0,0],"split_type":[0,0,0,0,0,0,0,0,0,0,0,0,0,0,0,0,0,0,0,0,0,0,0],"sum_hessian":[2.2567538E2,8.21326E1,1.4354279E2,7.9220896E0,7.421051E1,1.1701475E2,2.652804E1,3.455901E1,3.96515E1,1.043186E2,1.269614E1,1.8213844E1,8.314196E0,1.606754E1,1.8491472E1,1.1797181E1,2.785432E1,9.898242E1,5.3361793E0,5.1095076E0,7.5866323E0,9.000275E0,9.21357E0],"tree_param":{"num_deleted":"0","num_feature":"11","num_nodes":"23","size_leaf_vector":"1"}},{"base_weights":[7.819024E-3,1.4442916E-1,-1.5450242E-1,5.1079527E-2,6.070431E-1,-4.594533E-1,1.8320946E-2,1.4529249E-1,-4.9287573E-1,1.75647E-1,6.2476654E-2,-1.7265579E-1,-7.829746E-1,4.665584E-1,-1.5174091E-1,4.234015E-2,3.961853E-3,1.8404598E-3,-4.7646295E-2,-8.809863E-3,2.7012667E-2,1.5259738E-2,-2.2941608E-2,-5.3736925E-2,-2.9007653E-2,1.9800446E-4,3.507352E-2,3.3737127E-2,-1.3129066E-2],"categories":[],"categories_nodes":[],"categories_segments":[],"categories_sizes":[],"default_left":[0,0,0,0,0,0,0,0,0,0,0,0,0,0,0,0,0,0,0,0,0,0,0,0,0,0,0,0,0],"id":20,"left_children":[1,3,5,7,9,11,13,15,17,19,-1,21,23,25,27,-1,-1,-1,-1,-1,-1,-1,-1,-1,-1,-1,-1,-1,-1],"loss_changes":[5.129462E0,5.392073E0,5.5809436E0,5.482586E0,5.5992374E0,3.41714E0,5.288586E0,4.139039E0,3.8889503E0,1.8557247E0,0E0,3.0907469E0,4.2437744E-1,2.0698123E0,4.7921314E0,0E0,0E0,0E0,0E0,0E0,0E0,0E0,0E0,0E0,0E0,0E0,0E0,0E0,0E0],"parents":[2147483647,0,0,1,1,2,2,3,3,4,4,5,5,6,6,7,7,8,8,9,9,11,11,12,12,13,13,14,14],"right_children":[2,4,6,8,10,12,14,16,18,20,-1,22,24,26,28,-1,-1,-1,-1,-1,-1,-1,-1,-1,-1,-1,-1,-1,-1],"split_conditions":[5.8989227E1,5.5786953E1,6.500805E1,5.598559E1,4.2939065E-3,1.1165518E0,5.894826E1,1.51968775E1,1.2E1,6.245635E1,6.2476654E-2,6.667883E1,5.671652E1,2.5036645E-3,-5.3770485E0,4.234015E-2,3.961853E-3,1.8404598E-3,-4.7646295E-2,-8.809863E-3,2.7012667E-2,1.5259738E-2,-2.2941608E-2,-5.3736925E-2,-2.9007653E-2,1.9800446E-4,3.507352E-2,3.3737127E-2,-1.3129066E-2],"split_indices":[7,7,7,6,9,0,5,8,10,6,0,5,6,9,0,0,0,0,0,0,0,0,0,0,0,0,0,0,0],"split_type":[0,0,0,0,0,0,0,0,0,0,0,0,0,0,0,0,0,0,0,0,0,0,0,0,0,0,0,0,0],"sum_hessian":[2.2931357E2,1.24578354E2,1.0473522E2,1.0458486E2,1.9993486E1,3.7285526E1,6.74497E1,8.976967E1,1.4815197E1,1.2723651E1,7.2698355E0,2.0577505E1,1.6708021E1,1.8072355E1,4.9377342E1,6.708254E0,8.306142E1,7.3140535E0,7.5011435E0,6.738124E0,5.985527E0,7.682684E0,1.2894821E1,5.0887666E0,1.1619255E1,6.4289875E0,1.1643368E1,5.237361E0,4.413998E1],"tree_param":{"num_deleted":"0","num_feature":"11","num_nodes":"29","size_leaf_vector":"1"}},{"base_weights":[-3.0437116E-2,1.6928734E-2,-3.8290024E-1,1.404658E-1,-8.8961706E-2,-3.8464617E-2,-5.6079257E-2,-1.0568001E-1,2.867321E-1,-2.388872E-1,1.4333643E-1,-1.9681334E-2,1.3447741E-2,1.8773709E-3,-3.9406206E-2,5.0912548E-2,4.3473835E-3,-5.6672713E-4,-3.7542228E-2,2.948056E-2,-7.2808103E-3],"categories":[],"categories_nodes":[],"categories_segments":[],"categories_sizes":[],"default_left":[0,0,0,0,0,0,0,0,0,0,0,0,0,0,0,0,0,0,0,0,0],"id":21,"left_children":[1,3,5,7,9,-1,11,13,15,17,19,-1,-1,-1,-1,-1,-1,-1,-1,-1,-1],"loss_changes":[3.7959244E0,2.6425421E0,3.357876E0,3.3851156E0,3.8259206E0,0E0,1.825032E0,3.495912E0,8.493006E0,7.7433977E0,5.6732254E0,0E0,0E0,0E0,0E0,0E0,0E0,0E0,0E0,0E0,0E0],"parents":[2147483647,0,0,1,1,2,2,3,3,4,4,6,6,7,7,8,8,9,9,10,10],"right_children":[2,4,6,8,10,-1,12,14,16,18,20,-1,-1,-1,-1,-1,-1,-1,-1,-1,-1],"split_conditions":[7.056128E1,2.0352733E0,7.4133095E1,-6.309208E0,6.245635E1,-3.8464617E-2,-1.1031987E1,6.637481E1,-4.281447E0,5.163049E1,5.865572E1,-1.9681334E-2,1.3447741E-2,1.8773709E-3,-3.9406206E-2,5.0912548E-2,4.3473835E-3,-5.6672713E-4,-3.7542228E-2,2.948056E-2,-7.2808103E-3],"split_indices":[5,0,5,0,6,0,0,6,0,5,5,0,0,0,0,0,0,0,0,0,0],"split_type":[0,0,0,0,0,0,0,0,0,0,0,0,0,0,0,0,0,0,0,0,0],"sum_hessian":[2.2598457E2,2.0005243E2,2.593213E1,9.218191E1,1.0787053E2,1.1262683E1,1.4669448E1,3.446299E1,5.7718918E1,6.554156E1,4.2328968E1,7.0926785E0,7.576769E0,2.9265827E1,5.197161E0,1.1503101E1,4.6215816E1,4.608156E1,1.9460001E1,1.6226828E1,2.610214E1],"tree_param":{"num_deleted":"0","num_feature":"11","num_nodes":"21","size_leaf_vector":"1"}},{"base_weights":[8.929019E-3,-1.8154146E-1,1.5951757E-1,-2.658945E-1,3.2023564E-2,-1.6201546E-2,3.4024882E-1,-1.7841172E-1,-7.8163123E-1,3.9218658E-1,-2.7400956E-1,-1.3186074E-2,4.399876E-1,-2.8031534E-2,-1.0050939E-3,-5.5244524E-2,-1.434875E-2,1.9858622E-3,5.5090666E-2,-4.4609584E-2,-7.400477E-3,3.1464297E-2,-9.572242E-4],"categories":[],"categories_nodes":[],"categories_segments":[],"categories_sizes":[],"default_left":[0,0,0,0,0,0,0,0,0,0,0,0,0,0,0,0,0,0,0,0,0,0,0],"id":22,"left_children":[1,3,5,7,-1,9,11,13,15,17,19,-1,21,-1,-1,-1,-1,-1,-1,-1,-1,-1,-1],"loss_changes":[6.396256E0,6.999103E0,3.9596028E0,3.9222994E0,0E0,6.854539E0,3.8161502E0,4.724451E0,1.7233138E0,6.2619724E0,2.9736793E0,0E0,4.626487E0,0E0,0E0,0E0,0E0,0E0,0E0,0E0,0E0,0E0,0E0],"parents":[2147483647,0,0,1,1,2,2,3,3,5,5,6,6,7,7,8,8,9,9,10,10,12,12],"right_children":[2,4,6,8,-1,10,12,14,16,18,20,-1,22,-1,-1,-1,-1,-1,-1,-1,-1,-1,-1],"split_conditions":[1.1E1,1.0652505E-2,1.6643898E1,2.535112E1,3.2023564E-2,1.5E1,2E0,3E0,2.878062E1,1.2173178E-1,4.0280598E1,-1.3186074E-2,6.76575E1,-2.8031534E-2,-1.0050939E-3,-5.5244524E-2,-1.434875E-2,1.9858622E-3,5.5090666E-2,-4.4609584E-2,-7.400477E-3,3.1464297E-2,-9.572242E-4],"split_indices":[10,9,3,3,0,10,2,10,3,4,5,0,5,0,0,0,0,0,0,0,0,0,0],"split_type":[0,0,0,0,0,0,0,0,0,0,0,0,0,0,0,0,0,0,0,0,0,0,0],"sum_hessian":[2.2099107E2,9.748392E1,1.2350715E2,8.902492E1,8.459001E0,6.308349E1,6.042366E1,7.726469E1,1.1760231E1,2.4210663E1,3.8872826E1,8.330998E0,5.2092663E1,2.1884937E1,5.537975E1,6.3662286E0,5.3940024E0,1.6881598E1,7.3290653E0,5.552115E0,3.332071E1,3.662268E1,1.5469982E1],"tree_param":{"num_deleted":"0","num_feature":"11","num_nodes":"23","size_leaf_vector":"1"}},{"base_weights":[1.6239695E-2,7.170256E-2,-2.8274396E-1,1.18257605E-1,-2.806918E-1,-6.289859E-1,9.174733E-2,5.736574E-2,7.777494E-1,-4.9164265E-1,1.7819142E-2,6.7671924E-4,-9.21849E-1,3.335805E-2,-3.3087584E-1,1.1367459E-3,4.1199524E-2,5.2365538E-2,1.3766566E-2,-3.4672167E-2,-1.611898E-3,-5.738609E-2,-2.8647408E-2,-6.2040063E-3,-2.4223065E-2],"categories":[],"categories_nodes":[],"categories_segments":[],"categories_sizes":[],"default_left":[0,0,0,0,0,0,0,0,0,0,0,0,0,0,0,0,0,0,0,0,0,0,0,0,0],"id":23,"left_children":[1,3,5,7,9,11,13,15,17,19,-1,-1,21,-1,23,-1,-1,-1,-1,-1,-1,-1,-1,-1,-1],"loss_changes":[3.8189816E0,3.2164218E0,4.731864E0,6.8662267E0,3.2579832E0,3.5609536E0,4.644315E0,4.1926E0,1.6709232E0,1.6142097E0,0E0,0E0,3.6438656E-1,0E0,2.942114E-1,0E0,0E0,0E0,0E0,0E0,0E0,0E0,0E0,0E0,0E0],"parents":[2147483647,0,0,1,1,2,2,3,3,4,4,5,5,6,6,7,7,8,8,9,9,12,12,14,14],"right_children":[2,4,6,8,10,12,14,16,18,20,-1,-1,22,-1,24,-1,-1,-1,-1,-1,-1,-1,-1,-1,-1],"split_conditions":[1.9E1,7.4279564E1,1.6643898E1,1.3774276E1,4E0,8.368935E0,2.202012E1,4.916533E1,3.0820583E1,8.048762E1,1.7819142E-2,6.7671924E-4,1.2460849E1,3.335805E-2,5.3091626E0,1.1367459E-3,4.1199524E-2,5.2365538E-2,1.3766566E-2,-3.4672167E-2,-1.611898E-3,-5.738609E-2,-2.8647408E-2,-6.2040063E-3,-2.4223065E-2],"split_indices":[10,7,3,0,2,3,3,8,8,7,0,0,3,0,0,0,0,0,0,0,0,0,0,0,0],"split_type":[0,0,0,0,0,0,0,0,0,0,0,0,0,0,0,0,0,0,0,0,0,0,0,0,0],"sum_hessian":[2.2807947E2,1.9303142E2,3.5048054E1,1.7109267E2,2.1938742E1,1.785778E1,1.7190271E1,1.5762582E2,1.3466843E1,1.6652859E1,5.285884E0,5.8897934E0,1.1967988E1,7.0342793E0,1.01559925E1,1.5179828E2,5.8275447E0,8.058625E0,5.408217E0,1.1216428E1,5.4364305E0,5.8750434E0,6.092944E0,5.098707E0,5.0572853E0],"tree_param":{"num_deleted":"0","num_feature":"11","num_nodes":"25","size_leaf_vector":"1"}},{"base_weights":[5.9734114E-2,1.1550387E-1,-2.4720791E-1,1.7503497E-1,-2.7303383E-1,-6.143972E-1,1.6087939E-1,1.1489776E-1,6.97087E-1,-6.4865464E-1,1.0095631E-1,-1.5098677E-3,-8.9611113E-1,3.4471996E-2,-1.5109154E-2,1.2746239E-2,-1.1794432E-2,-7.0044876E-4,5.611219E-2,-5.478344E-2,-2.6914151E-3,3.4851566E-2,-1.7195802E-2,-5.6625158E-2,-2.6417715E-2],"categories":[],"categories_nodes":[],"categories_segments":[],"categories_sizes":[],"default_left":[0,0,0,0,0,0,0,0,0,0,0,0,0,0,0,0,0,0,0,0,0,0,0,0,0],"id":24,"left_children":[1,3,5,7,9,11,13,15,17,19,21,-1,23,-1,-1,-1,-1,-1,-1,-1,-1,-1,-1,-1,-1],"loss_changes":[3.8964076E0,4.486247E0,5.352453E0,5.1630044E0,3.7018535E0,3.044344E0,4.4665723E0,7.4748344E0,5.1714497E0,3.4107814E0,3.9087849E0,0E0,4.9318504E-1,0E0,0E0,0E0,0E0,0E0,0E0,0E0,0E0,0E0,0E0,0E0,0E0],"parents":[2147483647,0,0,1,1,2,2,3,3,4,4,5,5,6,6,7,7,8,8,9,9,10,10,12,12],"right_children":[2,4,6,8,10,12,14,16,18,20,22,-1,24,-1,-1,-1,-1,-1,-1,-1,-1,-1,-1,-1,-1],"split_conditions":[1.9E1,2.535112E1,1.6643898E1,7.164476E1,1.2E1,8.368935E0,2.202012E1,6.3818172E1,6.5144966E1,2.9177347E1,1.0155759E-1,-1.5098677E-3,1.2026972E1,3.4471996E-2,-1.5109154E-2,1.2746239E-2,-1.1794432E-2,-7.0044876E-4,5.611219E-2,-5.478344E-2,-2.6914151E-3,3.4851566E-2,-1.7195802E-2,-5.6625158E-2,-2.6417715E-2],"split_indices":[10,3,3,6,10,3,3,6,5,3,4,0,3,0,0,0,0,0,0,0,0,0,0,0,0],"split_type":[0,0,0,0,0,0,0,0,0,0,0,0,0,0,0,0,0,0,0,0,0,0,0,0,0],"sum_hessian":[2.2495135E2,1.9089113E2,3.4060223E1,1.6600554E2,2.4885588E1,1.7662386E1,1.6397839E1,1.4995207E2,1.6053474E1,1.2049318E1,1.283627E1,6.10644E0,1.1555945E1,7.42908E0,8.968759E0,1.07366684E2,4.258539E1,6.3686457E0,9.68483E0,6.3986845E0,5.6506333E0,5.24363E0,7.5926404E0,5.768499E0,5.787447E0],"tree_param":{"num_deleted":"0","num_feature":"11","num_nodes":"25","size_leaf_vector":"1"}},{"base_weights":[1.2458167E-2,8.771658E-2,-2.984405E-1,-1.3690577E-1,2.3888911E-1,-5.3124195E-1,1.4704725E-1,1.321739E-1,-4.8544705E-1,8.8020515E-1,1.5108697E-1,1.4657406E-3,-6.699903E-1,1.6220314E-2,-8.271592E-3,-2.436475E-2,1.2166116E-2,-6.700543E-3,-4.7326975E-2,-2.4410512E-3,7.4346945E-2,-1.2823311E-2,1.4175609E-2,-1.2856376E-2,-5.0519694E-2],"categories":[],"categories_nodes":[],"categories_segments":[],"categories_sizes":[],"default_left":[0,0,0,0,0,0,0,0,0,0,0,0,0,0,0,0,0,0,0,0,0,0,0,0,0],"id":25,"left_children":[1,3,5,7,9,11,13,15,17,19,21,-1,23,-1,-1,-1,-1,-1,-1,-1,-1,-1,-1,-1,-1],"loss_changes":[5.4458895E0,6.3915615E0,4.7834964E0,7.1887507E0,6.190311E0,2.3541183E0,9.60088E-1,3.1244388E0,5.2709565E0,7.57833E0,5.468704E0,0E0,3.1274767E0,0E0,0E0,0E0,0E0,0E0,0E0,0E0,0E0,0E0,0E0,0E0,0E0],"parents":[2147483647,0,0,1,1,2,2,3,3,4,4,5,5,6,6,7,7,8,8,9,9,10,10,12,12],"right_children":[2,4,6,8,10,12,14,16,18,20,22,-1,24,-1,-1,-1,-1,-1,-1,-1,-1,-1,-1,-1,-1],"split_conditions":[6.685842E1,1.253286E1,7.4133095E1,2.0352733E0,1.3801734E1,5.8989227E1,1.5E1,4.5462804E0,8.5314665E0,4.0899902E1,1.6643898E1,1.4657406E-3,6.964499E1,1.6220314E-2,-8.271592E-3,-2.436475E-2,1.2166116E-2,-6.700543E-3,-4.7326975E-2,-2.4410512E-3,7.4346945E-2,-1.2823311E-2,1.4175609E-2,-1.2856376E-2,-5.0519694E-2],"split_indices":[5,3,5,0,3,7,10,3,3,5,3,0,5,0,0,0,0,0,0,0,0,0,0,0,0],"split_type":[0,0,0,0,0,0,0,0,0,0,0,0,0,0,0,0,0,0,0,0,0,0,0,0,0],"sum_hessian":[2.3063397E2,1.8626352E2,4.4370453E1,7.496694E1,1.1129658E2,2.901526E1,1.5355192E1,4.2656326E1,3.231061E1,1.23158E1,9.8980774E1,5.9133744E0,2.3101887E1,9.771084E0,5.5841084E0,5.974451E0,3.6681877E1,1.9067984E1,1.324263E1,5.2288923E0,7.0869074E0,2.4044493E1,7.493628E1,1.1233071E1,1.1868815E1],"tree_param":{"num_deleted":"0","num_feature":"11","num_nodes":"25","size_leaf_vector":"1"}}]},"name":"gbtree"},"learner_model_param":{"base_score":"[2.5649568E-1]","boost_from_average":"1","num_class":"0","num_feature":"11","num_target":"1"},"objective":{"name":"binary:logistic","reg_loss_param":{"scale_pos_weight":"1"}}},"version":[3,2,0]}